digraph Tree {
node [shape=box] ;
0 [label="X[9] <= 0.5\nmse = 90.6667\nsamples = 33\nvalue = 16.0"] ;
1 [label="X[10] <= 0.5\nmse = 36.9439\nsamples = 14\nvalue = 8.3571"] ;
0 -> 1 [labeldistance=2.5, labelangle=45, headlabel="True"] ;
2 [label="X[3] <= 0.5\nmse = 18.4722\nsamples = 6\nvalue = 3.8333"] ;
1 -> 2 ;
3 [label="mse = 0.6667\nsamples = 3\nvalue = 1.0"] ;
2 -> 3 ;
4 [label="mse = 20.2222\nsamples = 3\nvalue = 6.6667"] ;
2 -> 4 ;
5 [label="X[6] <= 0.5\nmse = 23.9375\nsamples = 8\nvalue = 11.75"] ;
1 -> 5 ;
6 [label="X[8] <= 0.5\nmse = 5.36\nsamples = 5\nvalue = 8.8"] ;
5 -> 6 ;
7 [label="mse = 8.2222\nsamples = 3\nvalue = 8.3333"] ;
6 -> 7 ;
8 [label="mse = 0.25\nsamples = 2\nvalue = 9.5"] ;
6 -> 8 ;
9 [label="mse = 16.2222\nsamples = 3\nvalue = 16.6667"] ;
5 -> 9 ;
10 [label="X[8] <= 0.5\nmse = 55.4958\nsamples = 19\nvalue = 21.6316"] ;
0 -> 10 [labeldistance=2.5, labelangle=-45, headlabel="False"] ;
11 [label="X[7] <= 0.5\nmse = 27.75\nsamples = 8\nvalue = 14.5"] ;
10 -> 11 ;
12 [label="X[4] <= 0.5\nmse = 8.4722\nsamples = 6\nvalue = 17.1667"] ;
11 -> 12 ;
13 [label="mse = 1.5556\nsamples = 3\nvalue = 15.3333"] ;
12 -> 13 ;
14 [label="mse = 8.6667\nsamples = 3\nvalue = 19.0"] ;
12 -> 14 ;
15 [label="mse = 0.25\nsamples = 2\nvalue = 6.5"] ;
11 -> 15 ;
16 [label="X[1] <= 0.5\nmse = 11.7851\nsamples = 11\nvalue = 26.8182"] ;
10 -> 16 ;
17 [label="X[10] <= 0.5\nmse = 2.5\nsamples = 4\nvalue = 23.0"] ;
16 -> 17 ;
18 [label="mse = 0.25\nsamples = 2\nvalue = 21.5"] ;
17 -> 18 ;
19 [label="mse = 0.25\nsamples = 2\nvalue = 24.5"] ;
17 -> 19 ;
20 [label="X[2] <= 0.5\nmse = 4.0\nsamples = 7\nvalue = 29.0"] ;
16 -> 20 ;
21 [label="mse = 0.25\nsamples = 2\nvalue = 26.5"] ;
20 -> 21 ;
22 [label="X[5] <= 0.5\nmse = 2.0\nsamples = 5\nvalue = 30.0"] ;
20 -> 22 ;
23 [label="mse = 0.25\nsamples = 2\nvalue = 28.5"] ;
22 -> 23 ;
24 [label="mse = 0.6667\nsamples = 3\nvalue = 31.0"] ;
22 -> 24 ;
}